34 128
3 0.00461922 -0.194044 0.202456 0.409468 0.208804 -0.241231 -0.142568 -0.174575 -0.167265 -0.0782197 0.0928772 -0.181683 0.0631716 -0.174162 -0.227658 -0.214468 0.041295 0.327213 -0.115999 0.0621746 -0.059422 -0.0705842 -0.0692009 -0.224698 0.102597 -0.00337032 -0.105945 -0.218066 0.125574 -0.110379 0.0701862 0.12979 0.133456 0.0157639 0.0644376 0.20175 -0.235329 -0.226978 -0.282285 -0.0552521 -0.202714 -0.0348421 0.168034 0.125541 0.213257 0.0527823 -0.191101 0.00180656 0.0526199 -0.140641 0.00298102 -0.250099 0.385546 -0.28298 0.177874 0.109383 0.0652564 0.0173659 0.173714 0.00442324 -0.239945 -0.112202 -0.082895 0.0696056 -0.130741 0.129305 0.395211 -0.142861 -0.219822 0.0838279 -0.0133744 0.178792 0.185191 -0.0885203 0.300755 0.216805 0.0688302 -0.14239 0.0917817 -0.0463109 -0.0283665 0.106847 0.102166 -0.0272325 -0.0875232 -0.13571 -0.225512 -0.0925146 -0.0407078 -0.372037 0.266485 0.107007 0.0726097 -0.0633968 -0.110159 -0.0460888 -0.0923647 -0.0862247 0.276875 -0.0980561 0.412836 0.120949 -0.020286 -0.126392 -0.140749 0.0105803 -0.120917 -0.115968 -0.152436 0.0825525 0.195115 0.0459664 0.0954342 -0.0698546 0.0768852 0.0364438 -0.0266528 0.289453 -0.210984 0.183717 0.363962 0.0369821 -0.160541 -0.298373 -0.0129331 0.132759 0.0398088 0.204171
2 -0.0410455 -0.0725328 0.234694 0.39663 0.184236 -0.304106 -0.146706 -0.204614 -0.260085 -0.112601 0.112575 -0.166126 0.108058 -0.154418 -0.261364 -0.174397 0.0388582 0.248802 -0.0376293 0.103003 0.000622646 -0.0728266 -0.106727 -0.288903 0.108904 0.00719932 -0.121628 -0.282217 0.184679 -0.0807619 0.0861151 0.117594 0.106335 -0.0153693 0.08575 0.148454 -0.289634 -0.218349 -0.281047 -0.0921558 -0.194838 0.0123737 0.231192 0.112433 0.185628 0.0227718 -0.168989 -0.00445847 0.0425433 -0.163828 0.00486615 -0.24702 0.392971 -0.303347 0.143913 0.0865603 0.160113 0.0175886 0.254208 0.0283238 -0.301083 -0.0516012 -0.118364 0.181517 -0.0881098 0.130381 0.283769 -0.20598 -0.247449 0.0101528 -0.060828 0.21555 0.236974 -0.112509 0.339917 0.260276 0.144661 -0.13736 0.112095 0.0306738 -0.069324 0.0644617 0.0497207 -0.0764189 -0.0887974 -0.222014 -0.283186 -0.0894393 -0.0992618 -0.266097 0.252887 0.162381 0.0987929 0.0156987 -0.0848084 0.0428971 -0.0643473 -0.0622965 0.26451 -0.122624 0.453294 0.11359 0.00946272 -0.102417 -0.125145 -0.0131799 -0.0608425 -0.128326 -0.0913794 0.105519 0.219305 0.0477349 -0.0116968 0.000735325 0.0879745 0.0478438 0.048635 0.219312 -0.253535 0.227969 0.323407 0.0580316 -0.200121 -0.279734 -0.0862144 0.124389 -0.0609413 0.239539
14 0.0883661 -0.231957 0.0747555 0.359594 0.084002 -0.237264 -0.201529 -0.076597 -0.172871 -0.00090513 0.0424206 -0.250241 0.15106 -0.280881 -0.348848 -0.267948 -0.0276073 0.234695 0.0216957 -0.0148263 -0.057053 0.0144788 -0.205046 -0.22847 0.0767301 0.0147564 -0.112924 -0.175506 0.167018 -0.0486576 0.0645868 0.116962 -0.00109088 0.01331 0.172021 0.130559 -0.143855 -0.199927 -0.278407 -0.20213 -0.227185 0.00914251 0.33908 0.0337711 0.337967 0.0756871 -0.154849 0.0150064 0.0401291 -0.182805 -0.0903777 -0.255202 0.357521 -0.402913 0.129046 -0.0143368 0.0675226 -0.00699424 0.200078 0.0811265 -0.243857 -0.00839899 -0.0632795 0.153093 -0.175403 0.124899 0.214986 -0.16879 -0.0602297 -0.0147569 0.140296 0.236769 0.097372 -0.119157 0.333848 0.372076 0.0462768 -0.15171 0.166748 0.0751618 -0.0735982 0.140762 0.174633 -0.0158516 -0.0266503 -0.174269 -0.169415 0.00871988 -0.190686 -0.252932 0.257277 0.0667288 0.186542 0.0603885 0.0186615 0.0642156 -0.198288 -0.114936 0.285625 -0.0543599 0.423317 0.0850212 0.0995678 -0.0607729 -0.315547 0.0517961 -0.0456598 0.0274188 -0.0906333 0.0880478 0.127043 0.061336 -0.0409929 0.089192 0.00647139 -0.0991848 -0.0546315 0.153576 -0.188398 0.178998 0.252468 0.0586781 -0.19294 -0.22873 -0.0171552 0.224768 -0.0252836 0.103143
4 -0.0240705 -0.0237711 0.268049 0.421825 0.0947335 -0.272886 -0.0477119 -0.264138 -0.326573 -0.145866 0.132933 -0.18012 0.182043 -0.14485 -0.239955 -0.19988 0.000751639 0.147114 0.0637428 0.0556219 0.0316551 -0.0715704 -0.165319 -0.287761 0.0952064 0.000317284 -0.136619 -0.356155 0.165648 -0.0638729 0.188968 0.105012 0.183655 -0.0991995 0.0264198 0.193419 -0.411935 -0.276909 -0.339193 -0.094289 -0.22646 0.0535427 0.298605 0.0733164 0.153516 -0.0123072 -0.15548 -0.025636 0.0807522 -0.241095 -0.0263652 -0.224273 0.408053 -0.345959 0.059732 0.147111 0.156476 -0.0189429 0.256956 0.0370037 -0.40307 -0.0569795 -0.18351 0.239477 -0.110727 0.144448 0.229791 -0.271285 -0.2601 -0.0145449 -0.0834833 0.269585 0.286118 -0.124404 0.370841 0.297978 0.204286 -0.21732 0.0774372 0.112601 -0.00330216 0.0132842 -0.0360954 -0.0699683 -0.16093 -0.334296 -0.347129 -0.143802 -0.0890217 -0.171844 0.309643 0.228362 0.0947684 0.0152541 -0.0383059 0.0957421 -0.00640929 -0.0184292 0.224095 -0.21605 0.393893 0.113753 0.0448042 -0.154826 -0.0937725 0.0332511 -0.0378228 -0.133533 -0.0708079 0.0491634 0.266156 0.109348 -0.0688292 -0.0588479 0.0974665 0.136489 0.0773455 0.203555 -0.259986 0.244118 0.262357 0.0857193 -0.22021 -0.396307 -0.0886145 0.152341 -0.117066 0.268395
22 0.175711 -0.172566 0.0977325 0.486325 0.0643818 -0.166214 -0.0335922 -0.174383 -0.177111 0.0503882 0.0465789 -0.128829 0.177468 -0.224293 -0.210875 -0.275768 -0.00452377 0.289138 0.0816078 -0.00287184 0.0165358 0.0850519 -0.205566 -0.143281 0.111065 0.0855229 -0.202818 -0.292306 0.110897 -0.158588 0.0604874 0.0964054 0.154567 -0.0352727 0.088966 0.348431 -0.397567 -0.324533 -0.222156 -0.156882 -0.305103 -0.0294128 0.297729 0.0306276 0.11442 0.177647 -0.131227 0.0331709 0.0410434 -0.182774 -0.0543837 -0.201115 0.34073 -0.444358 0.0351109 0.128021 0.0382751 -0.110145 0.264131 -0.00567653 -0.389192 0.0128595 -0.207059 0.100549 -0.175433 0.246504 0.325288 -0.12898 -0.168969 0.0992443 -0.00241604 0.20136 0.183967 -0.221734 0.400026 0.336714 0.228641 -0.0923345 0.195251 0.123569 0.024102 -0.0451229 -0.0769745 0.00934487 -0.260947 -0.407773 -0.188046 -0.120342 -0.105221 -0.366595 0.405215 0.146954 0.12873 -0.05803 0.0705673 0.0528834 -0.0416522 0.0254669 0.236568 -0.146059 0.355878 0.0707791 -0.0172827 -0.178395 -0.0771305 0.110183 0.00631601 -0.0894125 -0.15994 -0.0441303 0.153605 0.215089 -0.0648734 -0.0236355 -0.0817981 0.0648515 -0.0152657 0.163072 -0.192866 0.203725 0.264588 0.182528 -0.225788 -0.337668 -0.0757729 0.387153 -0.103003 0.247142
18 0.157746 -0.143113 0.108788 0.488072 0.0744967 -0.191186 -0.0264328 -0.187129 -0.222365 0.0261864 0.0544041 -0.138843 0.196892 -0.218061 -0.231972 -0.275895 0.00994562 0.296742 0.0966777 0.0119381 0.0376016 0.0814251 -0.219817 -0.1946 0.12197 0.0741236 -0.205061 -0.345285 0.105404 -0.16175 0.0656756 0.101181 0.150995 -0.0214085 0.0855122 0.343144 -0.414689 -0.357231 -0.24453 -0.156573 -0.339643 -0.0337097 0.309471 0.0468333 0.106505 0.163406 -0.14128 0.0336527 0.00678915 -0.180895 -0.0474407 -0.189849 0.356278 -0.430621 0.0209733 0.113004 0.0617397 -0.107838 0.304086 -0.00484193 -0.406069 0.0124532 -0.240021 0.11017 -0.15403 0.264513 0.344804 -0.142034 -0.167988 0.123268 -0.0100432 0.222591 0.189098 -0.228381 0.428983 0.346062 0.263422 -0.0879156 0.202465 0.146569 0.0122229 -0.0554212 -0.081283 0.0017833 -0.253576 -0.451394 -0.208824 -0.13418 -0.104269 -0.368129 0.38546 0.178288 0.134036 -0.0477845 0.0573068 0.0777259 -0.0344439 0.0346531 0.242451 -0.158537 0.365537 0.0951785 -0.0270307 -0.158447 -0.0575556 0.0819077 0.00571027 -0.0815575 -0.156509 -0.0392975 0.189909 0.227137 -0.0880005 -0.0220306 -0.0818978 0.0521589 -0.00513791 0.155634 -0.214662 0.237954 0.275294 0.181248 -0.262022 -0.335079 -0.0909588 0.39059 -0.131305 0.258282
34 -0.0814952 -0.236788 0.218027 0.370812 0.189071 -0.148021 -0.263518 -0.247416 -0.00425438 -0.129662 0.163239 -0.190648 -0.0913402 -0.133079 -0.244655 -0.33538 0.00753324 0.302492 -0.250285 0.142753 -0.0651033 -0.120842 0.0217634 -0.0677771 0.0876166 -0.0432028 0.0619877 -0.0875112 0.223144 -0.153917 -0.0346082 0.0273068 0.224304 -0.109519 0.048682 0.127588 -0.0835112 -0.168878 -0.247163 -0.0242205 -0.143037 -0.0139049 0.0932096 0.0532696 0.276251 0.0524737 -0.0865265 0.0503438 0.205854 -0.14159 -0.164857 -0.380657 0.324679 -0.229434 0.27758 0.220363 0.0273595 -0.131505 0.0284267 -0.144204 -0.303304 -0.078156 0.0881434 0.176073 -0.193932 0.0304785 0.322244 -0.0231413 -0.198975 -0.0113419 -0.0732266 0.163484 0.218563 -0.126286 0.119978 0.327523 0.0503801 -0.132748 -0.00594937 -0.0160713 0.130871 0.256095 -0.0431742 0.0427368 -0.0941575 0.0499983 -0.144338 -0.223705 -0.107475 -0.310863 0.294577 0.114141 0.143864 -0.138188 -0.0617925 -0.0650166 -0.215213 -0.218014 0.352474 0.0148177 0.504573 -0.00198204 0.124288 -0.0849495 -0.107879 0.13821 -0.071751 -0.243468 -0.113269 0.122782 0.177972 0.0358122 0.185579 -0.180892 0.144568 0.113337 0.0308989 0.374678 -0.208746 0.219241 0.303832 -0.0404535 -0.0149323 -0.277164 -0.0497933 0.0428628 0.175434 0.0191062
24 0.0144436 -0.40368 0.130703 0.383302 0.146006 -0.123173 -0.432261 -0.163936 0.116989 -0.025268 0.100077 -0.198153 -0.179578 -0.280584 -0.290244 -0.360557 -0.0591512 0.298433 -0.275813 0.0990646 -0.133309 -0.0544632 0.0244228 0.068974 0.0414745 -0.00728325 0.101619 0.0965592 0.338036 -0.154296 -0.102733 0.0257471 0.165362 -0.11931 0.17967 0.0730305 0.0656195 -0.0554359 -0.194915 -0.129661 -0.0444392 0.0135964 0.179648 -0.0201318 0.428233 0.156882 -0.0508892 0.0684356 0.308853 -0.16514 -0.237992 -0.509227 0.315436 -0.423049 0.348022 0.193089 0.0261904 -0.151671 0.00388548 -0.0811935 -0.283766 0.0306544 0.212898 0.226775 -0.328012 -0.0133689 0.209561 -0.0162112 -0.180582 -0.187768 0.0275063 0.18067 0.169157 -0.14581 0.0936739 0.48152 -0.06853 -0.119546 0.0634928 -0.0392234 0.109428 0.3872 0.0326786 0.0129957 -0.0822873 0.160798 -0.102325 -0.125076 -0.263806 -0.282549 0.416688 -0.0334078 0.268303 -0.0609662 0.043999 -0.0928474 -0.408868 -0.329933 0.41983 0.116842 0.61203 -0.0924934 0.257289 -0.107435 -0.306802 0.245291 0.0151664 -0.245952 -0.105392 0.166051 0.0158856 -0.022156 0.142999 -0.0575069 0.128067 0.0386863 0.011611 0.354383 -0.183563 0.153432 0.323239 -0.0338838 0.0569468 -0.180765 -0.0179661 0.113848 0.23436 -0.0557646
23 -0.0785701 -0.283978 0.123914 0.34106 0.255613 -0.197447 -0.447396 -0.156279 0.0431482 -0.076687 0.114299 -0.169164 -0.195431 -0.219592 -0.325302 -0.305179 0.0191695 0.375004 -0.311544 0.184893 -0.0777231 -0.0714281 0.0577299 -0.0454866 0.0916121 -0.0193097 0.116173 -0.000442602 0.323282 -0.180546 -0.192029 0.0271259 0.0886162 -0.0268884 0.198245 0.0168124 0.0763242 -0.0923873 -0.168278 -0.0913939 -0.0864238 -0.0295415 0.099878 0.0532759 0.364207 0.118112 -0.0845009 0.0752945 0.179352 -0.0591162 -0.163109 -0.455818 0.310861 -0.266002 0.355649 0.109654 0.0929478 -0.105402 0.0933646 -0.11615 -0.239137 0.0332263 0.158429 0.199282 -0.193657 0.035894 0.299062 0.0367944 -0.177549 -0.0720851 -0.0133481 0.142778 0.144587 -0.150134 0.106155 0.414899 0.00192228 -0.0289215 0.0873626 -0.0545344 0.0372327 0.352235 0.0458428 0.00893619 -0.0116768 0.144092 -0.0900883 -0.139176 -0.216389 -0.354313 0.276889 0.0190761 0.264627 -0.0529973 -0.0588198 -0.0488536 -0.377835 -0.290487 0.43064 0.157916 0.624436 -0.034024 0.166719 0.0182092 -0.204489 0.117939 0.00643546 -0.239566 -0.0775359 0.209855 0.0620933 -0.0556712 0.147325 -0.0291982 0.102769 -0.0316067 0.0516229 0.346467 -0.206102 0.232344 0.37603 -0.0398086 -0.0320998 -0.0571528 -0.0649173 0.0599812 0.195118 -0.0356926
10 -0.106854 -0.157709 0.176132 0.279101 0.0779966 -0.217466 -0.266644 -0.190215 -0.220924 -0.188409 0.105686 -0.247987 -0.00307117 -0.261849 -0.347036 -0.244376 -0.0518459 0.102936 -0.0516317 0.0155737 -0.0477953 -0.105424 -0.0853986 -0.196088 0.0179183 -0.10705 0.11432 -0.158696 0.26179 -0.0480086 0.0978427 0.0622598 0.105217 -0.103864 0.109105 -0.0694176 -0.061287 -0.147245 -0.350758 -0.0940288 -0.119894 0.061389 0.285032 0.0138778 0.399951 -0.053769 -0.145399 -0.0371925 0.16249 -0.190633 -0.142684 -0.351812 0.354766 -0.312312 0.159819 0.0568826 0.148386 -0.00932029 0.136093 0.0660052 -0.312333 -0.00741624 -0.00335769 0.308705 -0.194235 0.0410395 0.135046 -0.203701 -0.150645 -0.157231 0.0675325 0.296509 0.156096 -0.0436908 0.205675 0.438324 0.0167992 -0.265018 0.0114597 0.065721 0.0277633 0.316023 0.114809 -0.068042 0.015958 -0.044457 -0.298752 -0.116745 -0.203321 -0.0414808 0.246426 0.0973179 0.268678 0.0917018 -0.0689484 0.0937695 -0.312022 -0.220123 0.316078 -0.0363245 0.444165 0.050287 0.246896 -0.0209702 -0.282524 0.0485787 0.02181 -0.111413 0.0496912 0.163449 0.152375 -0.0539519 -0.0294689 -0.0553648 0.151715 -0.00602451 0.0945152 0.240009 -0.22506 0.252436 0.262783 -0.0357212 -0.164579 -0.188266 0.0196279 0.0057143 0.046809 0.030759
8 0.00810515 -0.088145 0.222143 0.416672 0.143416 -0.31702 -0.0952733 -0.182675 -0.313388 -0.0959719 0.125378 -0.251164 0.235545 -0.165338 -0.331064 -0.241601 0.0193113 0.224082 0.0385865 0.0609472 -0.00149712 -0.0662179 -0.222659 -0.349431 0.128977 0.0331571 -0.19916 -0.336449 0.138027 -0.017914 0.159552 0.144385 0.0647003 -0.0122995 0.0911156 0.203726 -0.362628 -0.273038 -0.352567 -0.15879 -0.267167 0.0431811 0.315817 0.113906 0.222233 -0.0180964 -0.194527 -0.00321574 0.0140285 -0.226489 -0.0227177 -0.208298 0.44718 -0.333057 0.107772 0.0612238 0.128226 0.0431162 0.245086 0.0504002 -0.306869 -0.0990203 -0.156608 0.16675 -0.0818639 0.141535 0.283976 -0.245281 -0.18318 0.0562752 0.00411356 0.246387 0.23928 -0.119123 0.393662 0.269369 0.148545 -0.197767 0.124339 0.0787196 -0.0767537 0.01744 0.113902 -0.0244624 -0.071553 -0.262358 -0.263522 -0.0419072 -0.0908698 -0.295455 0.242196 0.199603 0.0639972 0.00495969 -0.0520604 0.0821086 -0.0115545 -0.0151122 0.257481 -0.182173 0.42779 0.158049 0.00953919 -0.0968503 -0.211521 0.0156795 -0.128378 -0.0237517 -0.1144 0.0807439 0.269644 0.090458 0.00403283 0.0373815 0.0827126 0.030148 -0.0142337 0.199587 -0.237099 0.216771 0.280626 0.0610691 -0.219789 -0.388454 -0.0713498 0.162424 -0.0808547 0.228155
1 0.0750185 -0.220715 0.191054 0.452861 0.121712 -0.181703 -0.11405 -0.201474 -0.14686 -0.0426775 0.0953571 -0.179302 0.0781631 -0.203791 -0.208444 -0.267738 -0.0130481 0.256468 -0.0533159 0.0305289 -0.0546198 -0.0317411 -0.122775 -0.11529 0.0865232 0.0441614 -0.124232 -0.196154 0.156221 -0.0998358 0.108646 0.112915 0.186423 -0.0679991 0.0706761 0.266556 -0.329764 -0.23592 -0.288913 -0.106301 -0.184035 0.0180442 0.239122 0.0650127 0.208429 0.0770019 -0.151029 0.00981444 0.138378 -0.212571 -0.0598976 -0.280625 0.396973 -0.397663 0.139175 0.192182 0.0537298 -0.0326638 0.14498 -0.000285141 -0.328467 -0.0720899 -0.0889586 0.117263 -0.200124 0.129403 0.326287 -0.165965 -0.250085 0.0131334 -0.024827 0.197319 0.236185 -0.133068 0.295634 0.289929 0.0928521 -0.188623 0.0936705 0.00674032 0.0464521 0.0814692 0.0230443 -0.00182703 -0.185972 -0.178065 -0.230483 -0.10509 -0.0748499 -0.340361 0.400622 0.109303 0.0901343 -0.0854794 -0.0093382 -0.0240463 -0.0886723 -0.0582889 0.270817 -0.141245 0.398086 0.0725367 0.0443952 -0.190953 -0.177959 0.142924 -0.0790413 -0.150285 -0.156352 0.0362836 0.159099 0.0885844 0.0776675 -0.070995 0.0732115 0.123209 -0.0112705 0.282656 -0.184733 0.148766 0.320951 0.0768567 -0.113851 -0.386232 -0.00521642 0.198507 0.034485 0.199627
13 0.0723591 -0.121884 0.27127 0.473255 0.20078 -0.366505 -0.0926572 -0.143949 -0.263368 -0.0184945 0.111757 -0.202296 0.248858 -0.133948 -0.243777 -0.16647 0.0407011 0.266935 -0.0079686 0.0969482 -0.0491056 -0.0656818 -0.206946 -0.325379 0.146219 0.119187 -0.345642 -0.258606 0.136337 0.0191041 0.186443 0.207014 0.0455032 0.0260201 0.108531 0.305628 -0.429471 -0.191202 -0.294884 -0.17905 -0.177248 0.0640751 0.296108 0.160648 0.167112 0.0278104 -0.195816 0.00832785 0.0326477 -0.251616 0.0701218 -0.199915 0.476465 -0.399312 0.160554 0.10851 0.126282 0.114326 0.231338 0.0874735 -0.223057 -0.136845 -0.117829 0.0826059 -0.0776011 0.10423 0.29636 -0.286158 -0.279828 0.0223992 -0.0444122 0.180106 0.299925 -0.105984 0.412255 0.139758 0.0837115 -0.164976 0.160835 -0.030937 -0.157778 -0.0737948 0.17196 -0.0608684 -0.103608 -0.218145 -0.252712 0.0695798 -0.0539204 -0.385924 0.295087 0.145421 -0.0618979 -0.0190289 -0.0407279 -0.0242952 0.0947166 0.0231231 0.228438 -0.224964 0.45967 0.159384 -0.0815989 -0.210468 -0.254303 0.0382425 -0.204924 -0.0447233 -0.218056 0.082376 0.224634 0.0673857 0.0555767 0.128032 0.107193 0.0737841 -0.0762922 0.207109 -0.21551 0.0870337 0.326707 0.0839053 -0.131991 -0.457953 -0.0850589 0.17886 -0.0683519 0.334056
32 0.00469193 -0.245158 0.175407 0.3843 0.163746 -0.164878 -0.344964 -0.179688 0.0677199 0.000641615 0.132241 -0.113237 -0.12311 -0.163458 -0.225484 -0.293663 -0.0273978 0.264393 -0.229298 0.181664 -0.0557257 -0.0434082 -0.00329205 0.0479625 0.0905455 0.0849504 -0.0277891 0.0343206 0.318392 -0.118056 -0.100472 0.0319735 0.146011 -0.103422 0.169668 0.148179 -0.113985 -0.0509448 -0.131886 -0.139788 -0.028643 0.0538204 0.140547 0.0223521 0.247201 0.134325 -0.0173297 0.0984768 0.260733 -0.153014 -0.163564 -0.419846 0.297724 -0.365284 0.29784 0.230777 0.0908673 -0.11846 0.0502883 -0.115007 -0.286445 0.0445905 0.162261 0.199084 -0.209538 0.0176145 0.170782 -0.0249933 -0.264845 -0.146505 -0.106333 0.107323 0.255459 -0.18205 0.111912 0.358457 0.0284332 -0.0560209 0.0876467 -0.0309686 0.0572786 0.203975 -0.0518288 0.0131919 -0.141036 0.0851843 -0.0869111 -0.0928172 -0.201925 -0.309806 0.385979 0.0281249 0.156929 -0.0923234 0.0561769 -0.0625218 -0.220104 -0.184648 0.350425 0.0510136 0.566302 -0.0811247 0.156641 -0.114428 -0.192256 0.246938 -0.00567391 -0.267659 -0.119797 0.13383 0.0385091 0.00236596 0.13393 0.0132521 0.122567 0.120021 0.0440503 0.286484 -0.159947 0.102422 0.283339 0.0172098 0.0733663 -0.207625 -0.101758 0.119485 0.142815 0.0479718
29 -0.00951237 -0.240485 0.143611 0.2985 0.030504 -0.0902453 -0.221507 -0.178585 -0.110834 -0.106273 0.114541 -0.223585 -0.061525 -0.252823 -0.261905 -0.305116 -0.1005 0.0595596 -0.0797515 -0.0110278 -0.0798259 -0.0807932 -0.108447 0.04701 0.0106039 0.014081 0.0673907 -0.0474159 0.244507 -0.00263882 0.119637 0.0567377 0.146334 -0.147178 0.119358 0.0552233 -0.208346 -0.111561 -0.341945 -0.127155 -0.0259845 0.132936 0.245813 -0.000720711 0.354743 -0.0587527 -0.116592 -0.00993955 0.273664 -0.231186 -0.175861 -0.363773 0.362316 -0.359594 0.14869 0.205434 0.0873968 0.014648 -0.0168203 0.0169499 -0.30248 -0.02225 0.0397859 0.21329 -0.243788 0.0282194 0.146263 -0.154714 -0.240929 -0.160445 0.0381486 0.202595 0.211974 -0.055454 0.105973 0.382096 -0.0451101 -0.324245 -0.0151005 -0.0131976 0.134946 0.272652 0.103861 0.037005 -0.0994327 0.0895201 -0.214288 -0.0679276 -0.118293 -0.149733 0.403683 0.0348797 0.188156 -0.054465 -0.00337046 0.0342606 -0.258389 -0.122529 0.293254 -0.0887242 0.332259 0.0152418 0.267977 -0.0861124 -0.356625 0.275824 -0.0339281 -0.154746 -0.00489904 0.0934499 0.0539917 -0.0771108 0.148038 -0.0661476 0.187205 0.141943 0.0538951 0.306874 -0.0870062 0.0804612 0.250205 -0.0124571 -0.0141689 -0.298734 0.125781 0.0103694 0.162977 0.00514994
33 -0.0253555 -0.322459 0.143981 0.355646 0.133883 -0.128372 -0.333393 -0.187564 0.0148621 -0.0857767 0.0912415 -0.188488 -0.132202 -0.259131 -0.263361 -0.310666 -0.0384242 0.272544 -0.212601 0.059087 -0.0992617 -0.065555 0.0225678 -0.0191447 0.0329391 -0.0690632 0.119932 -0.0131837 0.268336 -0.16386 -0.0455701 0.0319356 0.187285 -0.102985 0.114443 0.0505333 0.0239316 -0.123367 -0.237 -0.0643739 -0.102928 -0.0172504 0.166313 0.000625715 0.377908 0.106797 -0.0915446 0.0262379 0.233607 -0.142903 -0.18232 -0.429469 0.30458 -0.347442 0.267927 0.159429 0.037253 -0.126999 0.0536898 -0.0523496 -0.294098 0.00036639 0.108952 0.21182 -0.278947 0.0304865 0.252744 -0.0518744 -0.162371 -0.115058 0.0295172 0.208256 0.140642 -0.109578 0.133041 0.43425 -0.0201283 -0.145252 0.0337104 -0.0140555 0.105149 0.353095 0.0225257 -0.010964 -0.0721014 0.0532398 -0.170203 -0.174282 -0.2006 -0.228072 0.349649 0.0173552 0.260099 -0.040115 -0.0206351 -0.0516338 -0.362997 -0.284686 0.367515 0.0654672 0.514401 -0.0356617 0.208251 -0.0898112 -0.215016 0.142437 0.0187932 -0.216247 -0.0691992 0.137033 0.0801576 -0.00712672 0.0876434 -0.126133 0.106127 0.0304648 0.037483 0.332764 -0.203039 0.206527 0.320124 -0.0243034 -0.0452066 -0.175409 0.00245813 0.0932769 0.171278 -0.00790659
27 -0.0179956 -0.338188 0.126526 0.358857 0.138205 -0.150033 -0.404477 -0.170116 0.0615269 -0.0532356 0.0823323 -0.168723 -0.152254 -0.274078 -0.282593 -0.305699 -0.0407656 0.299577 -0.230074 0.0872544 -0.102437 -0.045687 0.0409602 -0.0175263 0.0320458 -0.0621382 0.12587 0.0341018 0.313233 -0.184883 -0.106076 0.0182912 0.158054 -0.101454 0.158072 0.0243284 0.104763 -0.0858823 -0.177311 -0.0935704 -0.0883683 -0.0251897 0.177205 -0.0231798 0.402049 0.167954 -0.0570345 0.0488382 0.239602 -0.128587 -0.202486 -0.463293 0.276547 -0.382993 0.307151 0.12861 0.048676 -0.16927 0.0812916 -0.0557923 -0.292495 0.0537342 0.15919 0.247163 -0.2918 0.0142162 0.204766 -0.0298732 -0.13484 -0.163489 0.0341314 0.205566 0.127365 -0.140976 0.134013 0.483142 -0.017975 -0.0792759 0.0733389 0.00480635 0.072308 0.374878 -0.00158444 -0.0354688 -0.0580615 0.0581765 -0.14188 -0.160176 -0.276684 -0.214834 0.34212 -0.00936734 0.303631 0.000198397 0.0202941 -0.0552903 -0.40984 -0.338782 0.38933 0.129176 0.590927 -0.0805962 0.227378 -0.0802387 -0.219796 0.136832 0.0666475 -0.22553 -0.0646973 0.163576 0.0486599 0.00449017 0.0355626 -0.0703123 0.0780699 -0.0160731 0.0411929 0.298542 -0.22731 0.220803 0.309862 -0.0216435 -0.0314158 -0.108811 -0.0555218 0.125388 0.154592 -0.0246694
30 -0.0570273 -0.347931 0.197731 0.387134 0.167055 -0.148839 -0.43058 -0.221408 0.171967 -0.0659498 0.11821 -0.149242 -0.178094 -0.196415 -0.233411 -0.327491 -0.0183699 0.353515 -0.321748 0.166497 -0.109093 -0.0780662 0.124527 -0.0185205 0.0457598 -0.102655 0.134867 0.082433 0.33175 -0.241032 -0.152914 -0.0214905 0.250938 -0.155303 0.0935168 0.0584086 0.201094 -0.0560013 -0.118165 -0.0339099 -0.0980718 -0.068781 0.111424 -0.0352937 0.371392 0.227882 0.0154672 0.0842552 0.290024 -0.132018 -0.238538 -0.49826 0.225218 -0.348462 0.389915 0.188688 -0.000425994 -0.289278 0.0374368 -0.147006 -0.304023 0.0343732 0.251979 0.279745 -0.312202 -0.0556243 0.191236 0.0225522 -0.116972 -0.184775 -0.049543 0.192009 0.158953 -0.165166 0.0907661 0.471256 -0.000675896 -0.00463046 0.0376805 0.0146424 0.111467 0.385635 -0.121503 -0.0404404 -0.0721676 0.0767133 -0.10865 -0.251087 -0.304271 -0.199665 0.319884 0.0194929 0.268371 -0.0419167 0.0425183 -0.127289 -0.389611 -0.428865 0.406976 0.177034 0.687774 -0.142778 0.205086 -0.133733 -0.102711 0.116239 0.0580397 -0.297195 -0.121054 0.17463 0.0973142 0.0729914 0.0486916 -0.14906 0.0938681 0.0213163 0.038965 0.32465 -0.291602 0.25434 0.272946 -0.0501981 0.0491197 -0.145142 -0.162589 0.122342 0.180982 -0.0471888
9 -0.0783834 -0.0401181 0.136981 0.307506 0.170162 -0.260802 -0.30313 -0.170157 -0.144918 -0.0654024 0.143312 -0.133268 -0.0147459 -0.131995 -0.34375 -0.249294 0.0170906 0.216425 -0.094109 0.208854 0.0544753 -0.0357182 -0.100342 -0.143265 0.135714 0.0854416 -0.0422357 -0.169661 0.302136 -0.075354 -0.107087 0.0286098 0.0124101 -0.0329823 0.206666 0.0533901 -0.192093 -0.135807 -0.169787 -0.181718 -0.126391 0.0667472 0.195201 0.0607016 0.200692 0.0373634 -0.0638689 0.0833015 0.0886924 -0.101849 -0.12031 -0.319069 0.317339 -0.251939 0.191098 0.0814425 0.212649 -0.0504606 0.205261 -0.0868519 -0.309335 0.0822452 0.0140634 0.253692 -0.0534523 0.10667 0.148864 -0.0578189 -0.214825 -0.0544442 -0.0941489 0.14323 0.229163 -0.194081 0.198508 0.364039 0.168008 -0.0350712 0.140276 0.0758962 -0.0418476 0.122009 -0.0268756 0.00392065 -0.0641606 -0.0620452 -0.122158 -0.0694073 -0.196901 -0.259859 0.231798 0.140307 0.190419 0.00100561 -0.000937232 0.117962 -0.163794 -0.0798277 0.326274 0.0253111 0.521763 0.0113968 0.124281 0.0524913 -0.154889 0.11412 0.0231979 -0.169067 -0.0152216 0.15877 0.117757 -0.000957581 0.0255753 0.109832 0.0819973 0.0245879 0.113036 0.178867 -0.18525 0.219371 0.249191 0.0383834 -0.105407 -0.110788 -0.148882 0.0987401 -0.0137189 0.0693647
25 0.0743978 -0.36703 0.229101 0.406413 0.0602392 -0.0972887 -0.26729 -0.187286 0.0989821 -0.000120863 0.129091 -0.192079 -0.0653406 -0.195458 -0.16534 -0.324033 -0.10355 0.14796 -0.202008 0.0585744 -0.149133 -0.0864747 -0.0468677 0.122971 0.0258574 0.0766746 -0.0656933 0.124473 0.266008 -0.0231284 0.10226 0.0735797 0.222589 -0.199408 0.0980464 0.211942 -0.16407 -0.0130282 -0.232655 -0.139319 0.0347866 0.128078 0.209387 -0.0170912 0.325307 0.0757569 -0.0331922 0.0511996 0.391149 -0.298376 -0.188757 -0.432738 0.347022 -0.471521 0.290688 0.330633 -0.00304143 -0.0768517 -0.10839 -0.0383146 -0.267112 -0.0621663 0.206717 0.17644 -0.323885 -0.0786851 0.11554 -0.134516 -0.279033 -0.245689 -0.0379262 0.146283 0.295344 -0.102224 0.0779413 0.321453 -0.116578 -0.240587 -0.00151617 -0.0766635 0.127003 0.224081 0.0316172 0.0280591 -0.167161 0.163201 -0.136701 -0.0453597 -0.165136 -0.233944 0.489397 -0.0145099 0.0663997 -0.129307 0.100604 -0.140328 -0.182562 -0.194812 0.300807 -0.0674426 0.478616 -0.0805071 0.220517 -0.270195 -0.348778 0.357469 -0.101099 -0.2289 -0.171491 0.0845471 0.0349434 -0.00700807 0.210222 -0.0458954 0.212789 0.223643 -0.0374711 0.339373 -0.113238 -0.0281349 0.232847 -0.0188315 0.190086 -0.438584 0.0182186 0.0808007 0.228545 0.0424045
26 0.0454463 -0.380185 0.263697 0.408914 0.0804772 -0.0705446 -0.286558 -0.213623 0.185572 -0.00705609 0.149606 -0.160029 -0.118931 -0.149258 -0.115885 -0.331219 -0.0944594 0.1738 -0.273642 0.103243 -0.161476 -0.112598 0.0285915 0.165572 0.0238374 0.0489569 -0.0326569 0.173101 0.279329 -0.0608082 0.0585794 0.0371819 0.289902 -0.235993 0.0546039 0.215819 -0.0935005 0.0148465 -0.18318 -0.0902839 0.053989 0.0974562 0.140561 -0.0291308 0.303931 0.114234 0.0132306 0.0686995 0.43563 -0.284446 -0.21588 -0.455575 0.298854 -0.436515 0.338823 0.379309 -0.0367556 -0.146957 -0.153241 -0.10209 -0.270458 -0.0720621 0.268927 0.187681 -0.341655 -0.126796 0.115278 -0.0873438 -0.274342 -0.260073 -0.0932989 0.121218 0.302583 -0.112284 0.0197881 0.307145 -0.120355 -0.198857 -0.0372261 -0.0850706 0.169843 0.250011 -0.0522343 0.0304828 -0.178607 0.209377 -0.104371 -0.107101 -0.166984 -0.220867 0.481378 -0.0147769 0.0570839 -0.164873 0.105992 -0.198768 -0.183571 -0.255554 0.309642 -0.024736 0.512658 -0.12662 0.216518 -0.296876 -0.26743 0.359707 -0.0944792 -0.299026 -0.193517 0.0897657 0.0447348 0.0175283 0.233493 -0.11428 0.222205 0.259033 -0.0337275 0.367175 -0.132022 -0.0168723 0.220024 -0.0433878 0.250511 -0.436194 -0.0232604 0.0589864 0.267114 0.0154759
28 -0.0718371 -0.259164 0.263098 0.324341 0.0543325 -0.162261 -0.278468 -0.231438 0.0123815 -0.137387 0.137191 -0.232219 -0.00822594 -0.163442 -0.230965 -0.294249 -0.0635875 0.142066 -0.168494 0.0666822 -0.106797 -0.143772 0.000620922 -0.112663 0.010339 -0.121811 0.0648885 0.00611985 0.244442 -0.0747605 0.0925612 0.0248073 0.23737 -0.205072 0.0152727 0.0318492 0.0615782 -0.0654822 -0.254761 -0.0472676 -0.0841579 0.0319185 0.211203 -0.0375313 0.377048 0.0455749 -0.0292297 0.0145732 0.292788 -0.249729 -0.212252 -0.39537 0.267485 -0.333744 0.276467 0.184636 0.00482307 -0.169321 -0.0095722 -0.0384188 -0.291317 -0.064977 0.179498 0.299872 -0.275292 -0.100976 0.0743518 -0.149901 -0.103961 -0.227636 -0.00337985 0.250986 0.198084 -0.0680847 0.119219 0.384418 -0.0425884 -0.203581 -0.049611 0.0534979 0.099344 0.318399 -0.0199057 -0.050493 -0.0316872 0.0437662 -0.20538 -0.177606 -0.231012 -0.0246639 0.269519 0.0747822 0.162494 0.00239149 0.0304289 -0.0662051 -0.252222 -0.334569 0.299176 0.00179675 0.524235 -0.0663731 0.235537 -0.175971 -0.200279 0.108872 -0.029345 -0.178931 -0.0708144 0.132558 0.175935 0.048967 0.0274925 -0.148099 0.179182 0.0839004 0.010665 0.273196 -0.258988 0.184869 0.16558 -0.0765281 0.0360964 -0.325925 -0.0800817 0.0203956 0.123197 -0.0134759
31 0.0294436 -0.32771 0.0456495 0.372914 0.166952 -0.0916915 -0.207305 -0.166661 -0.0447821 -0.0744937 0.0502155 -0.203696 -0.0603137 -0.26841 -0.277031 -0.34205 0.0194596 0.405566 -0.162347 -0.0030029 -0.0712691 -0.00742611 -0.0218997 -0.102934 0.070271 -0.0998481 0.108038 -0.173963 0.123333 -0.250686 -0.0795797 0.0450152 0.175779 0.00634347 0.0778277 0.136283 -0.0211115 -0.299178 -0.261841 -0.021311 -0.291635 -0.135472 0.130863 0.0436979 0.314018 0.1335 -0.17176 0.0173727 0.0547169 -0.0540167 -0.132578 -0.308875 0.299313 -0.25482 0.179825 0.0759389 -0.0380698 -0.137973 0.13578 -0.0787924 -0.288669 -0.0414428 -0.0627869 0.07064 -0.226227 0.18047 0.476723 0.0249116 -0.0604116 0.147256 0.100722 0.205382 0.0357483 -0.130381 0.228012 0.391695 0.0773845 -0.0968038 0.080499 0.0168049 0.117323 0.279166 0.0304826 0.053722 -0.0855592 -0.115933 -0.131923 -0.236581 -0.0934352 -0.388296 0.281154 0.069218 0.26195 -0.0950824 -0.0862349 -0.0300368 -0.323546 -0.200635 0.349929 0.0538801 0.392896 0.0586206 0.0756188 -0.0273964 -0.0960197 0.0341166 -0.00778089 -0.121468 -0.100636 0.0622214 0.141408 0.0879243 0.091329 -0.211016 -0.0257428 -0.0549873 -0.0188069 0.336198 -0.195573 0.300219 0.364041 0.0258945 -0.214071 -0.146106 0.0390626 0.201096 0.125625 0.019731
21 -0.0721343 -0.313211 0.113352 0.34206 0.23371 -0.175082 -0.42423 -0.161522 0.0173778 -0.096383 0.108332 -0.195614 -0.184207 -0.253066 -0.342287 -0.324101 0.00883743 0.372114 -0.28477 0.134204 -0.086299 -0.0718249 0.0416174 -0.0628589 0.0784152 -0.0517392 0.145885 -0.0270458 0.304379 -0.191369 -0.159735 0.0319163 0.109175 -0.0295631 0.181301 0.00867138 0.0781914 -0.129976 -0.216681 -0.0835983 -0.122442 -0.0461828 0.123225 0.0440145 0.399525 0.108742 -0.112097 0.0535858 0.170031 -0.0714412 -0.17634 -0.45209 0.329396 -0.279086 0.329088 0.100139 0.0765224 -0.105458 0.0924633 -0.0961872 -0.258129 0.0167817 0.125205 0.194433 -0.222711 0.05647 0.326812 0.0189518 -0.152233 -0.0497109 0.026381 0.178065 0.121071 -0.13592 0.125511 0.443971 -0.00287679 -0.0692976 0.0762509 -0.0404275 0.0621754 0.385978 0.066635 0.00943508 -0.00869424 0.110338 -0.118554 -0.16501 -0.207336 -0.340633 0.28919 0.0205681 0.295115 -0.0487647 -0.0690113 -0.0366282 -0.413396 -0.303151 0.431286 0.14244 0.597342 -0.0185804 0.182498 0.0166541 -0.222315 0.104926 0.00637896 -0.217266 -0.0621401 0.198246 0.0764527 -0.0458451 0.133654 -0.0768051 0.0939771 -0.0465143 0.0449342 0.359876 -0.208533 0.256643 0.386179 -0.0457508 -0.0771335 -0.0688806 -0.0233535 0.0689919 0.198816 -0.0441064
20 0.12306 -0.210701 0.0553244 0.418776 0.1004 -0.14438 -0.13888 -0.140007 -0.108026 0.0396014 0.018927 -0.0947941 0.0396681 -0.249979 -0.202942 -0.236693 -0.00240973 0.307953 -0.00390312 0.00995496 -0.00488845 0.0828706 -0.103985 -0.0923554 0.0797336 0.0369004 -0.0798635 -0.193743 0.159045 -0.197184 -0.0347478 0.0689638 0.131774 -0.00832148 0.126539 0.232188 -0.222441 -0.253821 -0.173205 -0.122111 -0.237612 -0.0634922 0.228174 0.025729 0.164574 0.195567 -0.116886 0.0383757 0.05461 -0.104996 -0.0594799 -0.246365 0.284977 -0.396206 0.0855207 0.0878536 0.0528608 -0.115021 0.243222 -0.00737512 -0.330703 0.0627744 -0.126935 0.102647 -0.191666 0.215316 0.311202 -0.0691532 -0.153299 0.055057 0.0188575 0.179258 0.114234 -0.187483 0.31728 0.364736 0.162574 -0.0433713 0.186329 0.0688849 0.014785 0.0780912 -0.0467006 -0.0158909 -0.197739 -0.286861 -0.16097 -0.122757 -0.143653 -0.331519 0.366254 0.0673969 0.207553 -0.0231531 0.0335001 0.0270189 -0.175393 -0.0633089 0.267552 -0.0315648 0.376064 0.0296006 0.0263741 -0.115956 -0.0812976 0.0791627 0.0598236 -0.12193 -0.110944 0.00890589 0.0844649 0.131929 -0.0665522 -0.0277684 -0.0778934 0.00505078 0.0190701 0.173548 -0.185635 0.20887 0.299782 0.141065 -0.207475 -0.171815 -0.0547083 0.323483 -0.0437186 0.172029
11 0.0970093 -0.0654235 0.291728 0.562563 0.137102 -0.322501 -0.183709 -0.247725 -0.10912 0.0658688 0.151158 -0.0637853 0.165289 -0.0894148 -0.201016 -0.236728 0.00474437 0.263649 -0.0130948 0.240347 0.0482468 0.0163361 -0.158268 -0.153322 0.170042 0.202953 -0.34878 -0.18959 0.296616 -0.0939977 0.022517 0.0907937 0.167282 -0.124481 0.147567 0.379758 -0.45998 -0.157808 -0.112951 -0.235148 -0.153434 0.0850473 0.29501 0.048136 0.044484 0.207073 -0.00392218 0.11728 0.175453 -0.266378 -0.0630527 -0.318855 0.376743 -0.523027 0.192358 0.25048 0.174584 -0.14739 0.276689 -0.074795 -0.426237 0.0623467 -0.0188453 0.258359 -0.134994 0.104138 0.125209 -0.183984 -0.348613 -0.121541 -0.235839 0.15259 0.417521 -0.297917 0.371221 0.320019 0.260667 0.00490483 0.225455 0.113525 -0.0743756 -0.126237 -0.201229 -0.0636481 -0.293924 -0.317231 -0.189338 -0.0578639 -0.22731 -0.3352 0.449816 0.182793 0.0351338 -0.0408293 0.163664 0.00890509 0.0729037 -0.0142821 0.277276 -0.131242 0.638657 -0.0360013 -0.000910692 -0.262461 -0.0701419 0.193372 -0.00712121 -0.246892 -0.213327 0.0591945 0.166664 0.203223 -0.0714484 0.146181 0.0451711 0.19912 0.053403 0.139134 -0.266741 0.132716 0.234976 0.168399 -0.0246091 -0.418252 -0.31337 0.329256 -0.144105 0.32582
6 0.121082 -0.103243 0.279084 0.570139 0.116634 -0.314109 -0.167961 -0.227872 -0.127818 0.0685994 0.130303 -0.0812979 0.172707 -0.131792 -0.191549 -0.228115 -0.00727009 0.24979 0.010546 0.187963 0.0261193 0.0276685 -0.173651 -0.153121 0.145288 0.19085 -0.341477 -0.185127 0.282588 -0.0813357 0.0583749 0.105028 0.166543 -0.116708 0.146359 0.376467 -0.456061 -0.159394 -0.144534 -0.235606 -0.151754 0.0834065 0.323313 0.0388982 0.0779903 0.204142 -0.0275693 0.0967582 0.179997 -0.279026 -0.049822 -0.309458 0.38918 -0.56014 0.179 0.23941 0.162321 -0.117943 0.27328 -0.0284575 -0.418166 0.0520445 -0.0354674 0.247537 -0.167144 0.109125 0.129631 -0.221251 -0.344433 -0.130803 -0.192877 0.171908 0.393724 -0.274248 0.392849 0.328562 0.223505 -0.0348607 0.223168 0.0991132 -0.0803755 -0.105347 -0.152764 -0.0792965 -0.289015 -0.325719 -0.213855 -0.0376701 -0.224229 -0.320028 0.467481 0.15966 0.0415563 -0.0260013 0.15836 0.00310913 0.0550362 -0.0182987 0.272685 -0.150075 0.605519 -0.0226622 0.00679915 -0.286982 -0.118725 0.189953 -0.0118086 -0.222904 -0.21682 0.0493866 0.156597 0.189065 -0.0811307 0.140011 0.0418328 0.186245 0.0305284 0.143104 -0.259387 0.116735 0.248283 0.171309 -0.0410122 -0.432129 -0.264621 0.343725 -0.139968 0.339386
17 0.118389 -0.110772 0.296841 0.603857 0.148834 -0.373073 -0.201009 -0.234271 -0.176727 0.0600547 0.145914 -0.124008 0.211209 -0.158494 -0.266021 -0.263985 -0.00364237 0.281208 0.0144409 0.201428 0.0322537 0.0176829 -0.219873 -0.214782 0.171021 0.200383 -0.368022 -0.236491 0.30756 -0.0739777 0.0700062 0.126262 0.137933 -0.0970855 0.181968 0.380455 -0.488131 -0.191748 -0.192841 -0.272059 -0.187897 0.0930364 0.36947 0.0637664 0.125065 0.192517 -0.0633135 0.0951882 0.165078 -0.302985 -0.0526973 -0.338186 0.451717 -0.589997 0.197252 0.221021 0.194368 -0.0985402 0.317662 -0.0174335 -0.441168 0.0461669 -0.0576087 0.273187 -0.162121 0.13213 0.163758 -0.242827 -0.35259 -0.116374 -0.17688 0.20396 0.410003 -0.291433 0.442164 0.369465 0.239586 -0.0574431 0.249551 0.112486 -0.110985 -0.0969164 -0.111438 -0.0803863 -0.271897 -0.346824 -0.243735 -0.0221901 -0.244486 -0.364771 0.477425 0.18607 0.0600846 -0.00698938 0.145129 0.0333427 0.0412302 -0.0184275 0.315804 -0.165995 0.673935 0.00455223 0.0109375 -0.268318 -0.172243 0.182011 -0.0286882 -0.199698 -0.219754 0.0709981 0.190486 0.182599 -0.0772278 0.176446 0.0522259 0.162541 0.0299134 0.162412 -0.287967 0.156093 0.283436 0.171043 -0.0820573 -0.457708 -0.275217 0.353534 -0.151697 0.353701
7 0.144931 -0.142771 0.26412 0.574989 0.145347 -0.31809 -0.171429 -0.202654 -0.0988159 0.0916385 0.121983 -0.101612 0.180912 -0.134639 -0.198928 -0.234986 0.00366791 0.297525 -0.019843 0.183123 0.00231354 0.0282828 -0.17388 -0.167224 0.154957 0.19043 -0.358571 -0.175325 0.25508 -0.090177 0.0468269 0.119894 0.144036 -0.0838167 0.152046 0.396141 -0.426232 -0.162705 -0.138057 -0.234693 -0.167637 0.060602 0.309869 0.0527907 0.0953556 0.221539 -0.0454532 0.101682 0.158192 -0.268946 -0.0438372 -0.304365 0.393128 -0.548735 0.199235 0.218835 0.128703 -0.109978 0.262245 -0.0278435 -0.377866 0.0263846 -0.0290385 0.20052 -0.168903 0.11127 0.17687 -0.198893 -0.313003 -0.0935366 -0.162868 0.163515 0.367213 -0.269261 0.397437 0.303643 0.200511 -0.0194123 0.236115 0.0773478 -0.0920156 -0.101917 -0.110958 -0.0666794 -0.269998 -0.306505 -0.183752 -0.0191152 -0.208955 -0.376481 0.452988 0.141646 0.0279738 -0.0391653 0.146162 -0.0271296 0.0539063 -0.0291746 0.275111 -0.140033 0.611872 -0.0111812 -0.0245471 -0.285854 -0.138001 0.176078 -0.0426656 -0.194203 -0.245399 0.0520204 0.153614 0.195607 -0.0487754 0.145025 0.0317527 0.153091 -0.00752074 0.154027 -0.255569 0.107996 0.266996 0.166212 -0.0408011 -0.434068 -0.254763 0.354806 -0.114621 0.328029
15 -0.0599588 -0.334411 0.0908555 0.349561 0.239777 -0.147458 -0.414776 -0.167319 0.0247804 -0.0926927 0.102503 -0.190295 -0.212955 -0.266422 -0.335228 -0.346776 0.00610229 0.390578 -0.303574 0.125162 -0.0905494 -0.0677565 0.0477083 -0.0208711 0.0805951 -0.0440934 0.165056 -0.032041 0.295474 -0.206113 -0.170205 0.0310328 0.120297 -0.0249098 0.184392 0.0337908 0.0569997 -0.149968 -0.222675 -0.0747775 -0.126235 -0.0472677 0.104545 0.0485812 0.394648 0.108267 -0.128254 0.0533609 0.174165 -0.0558592 -0.177229 -0.461357 0.335331 -0.27326 0.321274 0.122183 0.063446 -0.102298 0.076333 -0.112012 -0.2644 0.0137017 0.108716 0.165294 -0.232538 0.0789951 0.380479 0.0444034 -0.171021 -0.0204307 0.0303482 0.170029 0.112492 -0.136309 0.113572 0.44266 -0.00222057 -0.0792405 0.0690841 -0.0595578 0.0950043 0.393158 0.0668971 0.0389387 -0.0321628 0.125349 -0.10941 -0.173598 -0.18028 -0.390304 0.318166 0.0137832 0.29931 -0.0822897 -0.0805606 -0.0447639 -0.42806 -0.284507 0.441525 0.143855 0.571354 -0.00997476 0.179389 0.0233234 -0.223354 0.135641 0.00409268 -0.227164 -0.0716776 0.186596 0.0640763 -0.0508467 0.178682 -0.101081 0.0908512 -0.0308629 0.0442863 0.395003 -0.186314 0.254457 0.413345 -0.0373619 -0.0779671 -0.0689681 0.0102585 0.0775645 0.225389 -0.050145
5 0.132495 -0.103869 0.264828 0.547276 0.120707 -0.296432 -0.168696 -0.211541 -0.0733214 0.0966871 0.130189 -0.0647371 0.162133 -0.102464 -0.174436 -0.225398 -0.00468569 0.253364 -0.014297 0.206199 0.0215903 0.0311534 -0.158554 -0.123984 0.151838 0.204993 -0.351905 -0.148198 0.276183 -0.0819811 0.0306528 0.0967804 0.154287 -0.110873 0.144874 0.383614 -0.423617 -0.135239 -0.100016 -0.2316 -0.136091 0.0825 0.29497 0.0336857 0.0548014 0.221369 -0.000842816 0.114558 0.179169 -0.267353 -0.0587725 -0.30045 0.354183 -0.534202 0.187999 0.239199 0.141884 -0.137628 0.241254 -0.0544959 -0.389098 0.0592463 -0.00421825 0.223543 -0.153965 0.090064 0.109043 -0.180194 -0.323985 -0.125126 -0.202516 0.14084 0.385458 -0.278396 0.356053 0.298953 0.215003 0.00109152 0.225026 0.0944223 -0.0762702 -0.121742 -0.167462 -0.0598364 -0.284244 -0.295079 -0.169704 -0.0307098 -0.218358 -0.329285 0.447949 0.148572 0.0217438 -0.0433708 0.173123 -0.0137135 0.0695818 -0.0185645 0.258983 -0.128039 0.600733 -0.04354 -0.00388586 -0.281743 -0.104066 0.20011 -0.0174253 -0.221327 -0.227543 0.0422082 0.134043 0.194216 -0.0585096 0.152968 0.0334021 0.182898 0.0181133 0.131423 -0.243628 0.0936 0.223143 0.165515 -0.00345915 -0.412294 -0.27968 0.338397 -0.124189 0.314485
16 -0.0853609 -0.310068 0.123543 0.351954 0.252594 -0.181697 -0.452714 -0.174618 0.0262034 -0.09622 0.122102 -0.185821 -0.222933 -0.250054 -0.34559 -0.330612 0.0117396 0.376402 -0.313665 0.165829 -0.0867186 -0.0794861 0.0591325 -0.0288971 0.0871861 -0.0328915 0.155531 -0.0127691 0.336359 -0.198925 -0.186202 0.0233882 0.112674 -0.0365768 0.199 0.0106923 0.0627921 -0.118456 -0.204715 -0.0850151 -0.0964143 -0.029579 0.108073 0.0460541 0.392556 0.114197 -0.103065 0.0651154 0.197204 -0.0669589 -0.185544 -0.483001 0.340544 -0.279033 0.346538 0.127554 0.0974912 -0.107275 0.0906444 -0.117182 -0.275832 0.0326437 0.140327 0.212997 -0.220045 0.0540351 0.328774 0.0287972 -0.196201 -0.0659078 -0.00511084 0.163564 0.14459 -0.146456 0.103734 0.452873 0.00378515 -0.06165 0.070954 -0.0519918 0.0738135 0.390933 0.0441656 0.0130662 -0.0253079 0.140075 -0.120854 -0.170752 -0.211026 -0.360227 0.319108 0.020113 0.296863 -0.0606998 -0.0702284 -0.036689 -0.423529 -0.305722 0.449942 0.154812 0.624352 -0.029205 0.197841 0.0244596 -0.222394 0.137799 0.0174549 -0.257164 -0.0620905 0.210305 0.0655977 -0.0623625 0.163308 -0.0691901 0.11445 -0.0163387 0.0676439 0.384059 -0.208923 0.254977 0.403227 -0.043579 -0.051471 -0.0620433 -0.0329943 0.0560126 0.215753 -0.0475505
19 -0.0719029 -0.298336 0.120896 0.338454 0.225879 -0.164879 -0.413767 -0.166907 0.0325921 -0.0906423 0.103227 -0.164928 -0.196363 -0.23711 -0.304429 -0.301817 0.00420858 0.356696 -0.292765 0.144075 -0.0868479 -0.073954 0.0627007 -0.033377 0.0738678 -0.0484724 0.142772 -0.00764231 0.303957 -0.196597 -0.161794 0.026576 0.128697 -0.0445079 0.168371 0.0140094 0.0727159 -0.113484 -0.187395 -0.0695952 -0.0986957 -0.0419857 0.103275 0.0417306 0.370381 0.114933 -0.0985249 0.054051 0.182935 -0.0703878 -0.166079 -0.448869 0.308234 -0.275279 0.323906 0.123984 0.0780278 -0.111954 0.0810985 -0.103335 -0.256485 0.0219054 0.135615 0.195181 -0.221637 0.0440108 0.310449 0.0236397 -0.177101 -0.066866 -0.000362141 0.165689 0.131246 -0.135347 0.107154 0.420494 -0.00254831 -0.0569107 0.0645895 -0.0497058 0.0687003 0.371188 0.0343925 0.00517379 -0.0310384 0.113895 -0.11804 -0.164648 -0.204447 -0.318701 0.295345 0.0122472 0.276746 -0.0512971 -0.0665944 -0.0473689 -0.392677 -0.296553 0.411521 0.141842 0.577899 -0.0332908 0.177879 -0.0022678 -0.192813 0.115739 0.0169561 -0.241629 -0.0649217 0.187731 0.068571 -0.0441794 0.133811 -0.0835756 0.100844 -0.0169001 0.0567536 0.351226 -0.204114 0.240712 0.374583 -0.0354302 -0.0561412 -0.0652094 -0.0333818 0.0656084 0.194619 -0.0323284
12 0.102514 -0.0803882 0.203027 0.473599 0.120025 -0.271241 -0.165299 -0.178003 -0.12317 0.0626604 0.105713 -0.0667873 0.132147 -0.126708 -0.204577 -0.204707 0.00468046 0.243877 0.000269037 0.173343 0.0408603 0.0350041 -0.154125 -0.134687 0.143761 0.172143 -0.280245 -0.1824 0.249333 -0.0870664 0.00510249 0.0879359 0.101756 -0.0630896 0.161036 0.303137 -0.388491 -0.152123 -0.116143 -0.219091 -0.147146 0.0592269 0.270702 0.045921 0.0727856 0.176303 -0.0398406 0.0891958 0.120985 -0.203073 -0.0408895 -0.262784 0.334751 -0.454373 0.150878 0.169981 0.156954 -0.0938347 0.260868 -0.0338954 -0.354594 0.0675894 -0.0490855 0.198573 -0.120096 0.12479 0.139497 -0.156221 -0.284516 -0.0718698 -0.148627 0.140443 0.314445 -0.247193 0.336645 0.295618 0.210633 -0.00168069 0.218212 0.0866989 -0.0761228 -0.0842849 -0.116921 -0.0472859 -0.232081 -0.276559 -0.160234 -0.0300686 -0.190648 -0.312303 0.385925 0.135701 0.0675547 -0.0168981 0.120188 0.0340427 0.024143 -0.00273576 0.250702 -0.106965 0.522232 -0.00420758 -0.000550923 -0.186055 -0.100311 0.155483 0.00272038 -0.177328 -0.164929 0.0482064 0.12425 0.148538 -0.0642325 0.145722 0.0173467 0.122371 0.0394287 0.117222 -0.215742 0.127988 0.231112 0.151306 -0.0721562 -0.314413 -0.221257 0.298887 -0.121866 0.271731
